digraph Tree {
node [shape=box] ;
0 [label="X[5] <= 0.5\nentropy = 0.927\nsamples = 1050\nvalue = [691, 359]"] ;
1 [label="X[3] <= 0.5\nentropy = 0.922\nsamples = 371\nvalue = [125, 246]"] ;
0 -> 1 [labeldistance=2.5, labelangle=45, headlabel="True"] ;
2 [label="X[0] <= 2.5\nentropy = 0.406\nsamples = 197\nvalue = [16, 181]"] ;
1 -> 2 ;
3 [label="X[0] <= 1.5\nentropy = 1.0\nsamples = 2\nvalue = [1, 1]"] ;
2 -> 3 ;
4 [label="entropy = 0.0\nsamples = 1\nvalue = [0, 1]"] ;
3 -> 4 ;
5 [label="entropy = 0.0\nsamples = 1\nvalue = [1, 0]"] ;
3 -> 5 ;
6 [label="X[0] <= 17.5\nentropy = 0.391\nsamples = 195\nvalue = [15, 180]"] ;
2 -> 6 ;
7 [label="entropy = 0.0\nsamples = 18\nvalue = [0, 18]"] ;
6 -> 7 ;
8 [label="X[1] <= 0.5\nentropy = 0.419\nsamples = 177\nvalue = [15, 162]"] ;
6 -> 8 ;
9 [label="entropy = 0.544\nsamples = 72\nvalue = [9, 63]"] ;
8 -> 9 ;
10 [label="entropy = 0.316\nsamples = 105\nvalue = [6, 99]"] ;
8 -> 10 ;
11 [label="X[0] <= 5.5\nentropy = 0.953\nsamples = 174\nvalue = [109, 65]"] ;
1 -> 11 ;
12 [label="X[0] <= 2.5\nentropy = 0.722\nsamples = 5\nvalue = [1, 4]"] ;
11 -> 12 ;
13 [label="X[0] <= 1.083\nentropy = 1.0\nsamples = 2\nvalue = [1, 1]"] ;
12 -> 13 ;
14 [label="entropy = 0.0\nsamples = 1\nvalue = [0, 1]"] ;
13 -> 14 ;
15 [label="entropy = 0.0\nsamples = 1\nvalue = [1, 0]"] ;
13 -> 15 ;
16 [label="entropy = 0.0\nsamples = 3\nvalue = [0, 3]"] ;
12 -> 16 ;
17 [label="X[0] <= 12.5\nentropy = 0.943\nsamples = 169\nvalue = [108, 61]"] ;
11 -> 17 ;
18 [label="entropy = 0.0\nsamples = 5\nvalue = [5, 0]"] ;
17 -> 18 ;
19 [label="X[0] <= 17.5\nentropy = 0.952\nsamples = 164\nvalue = [103, 61]"] ;
17 -> 19 ;
20 [label="entropy = 0.863\nsamples = 7\nvalue = [2, 5]"] ;
19 -> 20 ;
21 [label="entropy = 0.94\nsamples = 157\nvalue = [101, 56]"] ;
19 -> 21 ;
22 [label="X[0] <= 13.5\nentropy = 0.649\nsamples = 679\nvalue = [566, 113]"] ;
0 -> 22 [labeldistance=2.5, labelangle=-45, headlabel="False"] ;
23 [label="X[3] <= 0.5\nentropy = 0.826\nsamples = 27\nvalue = [7, 20]"] ;
22 -> 23 ;
24 [label="entropy = 0.0\nsamples = 14\nvalue = [0, 14]"] ;
23 -> 24 ;
25 [label="X[0] <= 4.0\nentropy = 0.996\nsamples = 13\nvalue = [7, 6]"] ;
23 -> 25 ;
26 [label="X[0] <= 0.583\nentropy = 0.722\nsamples = 5\nvalue = [1, 4]"] ;
25 -> 26 ;
27 [label="entropy = 0.0\nsamples = 1\nvalue = [1, 0]"] ;
26 -> 27 ;
28 [label="entropy = 0.0\nsamples = 4\nvalue = [0, 4]"] ;
26 -> 28 ;
29 [label="X[0] <= 7.5\nentropy = 0.811\nsamples = 8\nvalue = [6, 2]"] ;
25 -> 29 ;
30 [label="entropy = 0.0\nsamples = 3\nvalue = [3, 0]"] ;
29 -> 30 ;
31 [label="entropy = 0.971\nsamples = 5\nvalue = [3, 2]"] ;
29 -> 31 ;
32 [label="X[1] <= 0.5\nentropy = 0.591\nsamples = 652\nvalue = [559, 93]"] ;
22 -> 32 ;
33 [label="X[0] <= 18.5\nentropy = 0.496\nsamples = 524\nvalue = [467, 57]"] ;
32 -> 33 ;
34 [label="entropy = 0.0\nsamples = 14\nvalue = [14, 0]"] ;
33 -> 34 ;
35 [label="X[0] <= 45.5\nentropy = 0.505\nsamples = 510\nvalue = [453, 57]"] ;
33 -> 35 ;
36 [label="entropy = 0.514\nsamples = 497\nvalue = [440, 57]"] ;
35 -> 36 ;
37 [label="entropy = 0.0\nsamples = 13\nvalue = [13, 0]"] ;
35 -> 37 ;
38 [label="X[0] <= 60.5\nentropy = 0.857\nsamples = 128\nvalue = [92, 36]"] ;
32 -> 38 ;
39 [label="X[0] <= 17.5\nentropy = 0.887\nsamples = 118\nvalue = [82, 36]"] ;
38 -> 39 ;
40 [label="entropy = 0.0\nsamples = 1\nvalue = [0, 1]"] ;
39 -> 40 ;
41 [label="entropy = 0.88\nsamples = 117\nvalue = [82, 35]"] ;
39 -> 41 ;
42 [label="entropy = 0.0\nsamples = 10\nvalue = [10, 0]"] ;
38 -> 42 ;
}